let networkLoader = {
	savedNetworks: [
		'{"weights":[[[0.26666666666666666,-0.9333333333333333,-0.4,-0.7333333333333333,-0.6327845564060159,0.6],[0.26666666666666666,0.4666666666666667,0.5514549892445203,0.6,0.8,-0.554524637951865],[-0.5333333333333333,0.4,0.8,-0.3333333333333333,-0.13333333333333333,0.6666666666666666],[0.6,0.2,0.2848386303298343,0.8666666666666667,0.9333333333333333,-0.2],[0.6666666666666666,-0.4,0.9333333333333333,-1,-0.5333333333333333,0.2426129841064939],[0.17229200357180913,-0.20952021922849237,-0.4666666666666667,-0.7333333333333333,-0.5456414116510385,-0.06666666666666667],[0.8,-0.7333333333333333,0.5742864969836736,-0.5333333333333333,-0.3333333333333333,0.7333333333333333],[0.3333333333333333,0.6666666666666666,-0.9333333333333333,-0.4666666666666667,0,-0.4],[0.7333333333333333,0.9333333333333333,0.7179263886304331,0.9333333333333333,-0.6666666666666666,-0.7492182243131889],[0.28502308505288937,0.26666666666666666,-0.5862806386798834,-1.0200591910072678,0.7807048359542408,0.9333333333333333]],[[-0.8666666666666667,-0.8666666666666667,0.49139600017243357,0,-0.6666666666666666,-0.26666666666666666,0.9333333333333333,-0.9551979092771492,0.5333333333333333,0.9333333333333333],[0.06666666666666667,-0.5333333333333333,0.9078948682727624,-0.3333333333333333,0,0.13333333333333333,0,-0.5333333333333333,0.5796024005121562,-0.8],[-0.6666666666666666,0.6666666666666666,-0.6666666666666666,0.4,0.4,-0.26666666666666666,0.06666666666666667,-0.38060520211242665,0.2,0.9333333333333333],[-0.7333333333333333,-0.49839601122439237,-0.5333333333333333,0.4260530136046268,0.2,0.9333333333333333,-0.3333333333333333,0.4666666666666667,-0.6,-0.7333333333333333],[0.6,0.08704627161911266,0.3333333333333333,0.06666666666666667,0.6,-0.13333333333333333,-0.9333333333333333,0.8,-0.06666666666666667,0.8227627176606762],[-0.2600468017503117,-0.26666666666666666,0.9179799696861062,-0.0660653779265795,-0.26666666666666666,-0.13333333333333333,0.8666666666666667,1.0671114855654946,-0.3333333333333333,-0.7333333333333333],[0.8929600905621748,0.5333333333333333,0,-0.05210556054694879,0.26666666666666666,0.2,0.4666666666666667,-0.2,-0.7333333333333333,0.8],[0.00042160346919396796,0.26666666666666666,-0.06666666666666667,-1.0281332368437388,0.7333333333333333,0.5333333333333333,0.4666666666666667,-0.4666666666666667,-0.8,0.26666666666666666],[0.6,-0.7321216402642853,-0.9333333333333333,0.3333333333333333,-0.38723647705777686,0.2,-0.06666666666666667,0.6,-0.06666666666666667,-0.8550717774653466],[-0.5874475554724067,0.4,0.8666666666666667,0.7333333333333333,0.8,-0.5333333333333333,0.45239587807091025,-0.6,-0.6,-0.4666666666666667],[0.6,0.5333333333333333,0.0855883445475177,0.6666666666666666,0.06666666666666667,-0.6994723780230783,0.18552687831093856,-0.06666666666666667,0,0.7225785085071003],[0.9333333333333333,-0.2,0.6082693949358239,0.8303884487964647,-0.2664575666483396,-0.7333333333333333,0.6666666666666666,-0.8666666666666667,0.4,0.06666666666666667],[0.13333333333333333,-0.4,0.41584760467498777,0.13333333333333333,-0.6,0.9333333333333333,-0.6,-0.6666666666666666,-0.6666666666666666,-0.3142611104734464],[-0.26666666666666666,-0.26666666666666666,0.5333333333333333,0.8,-0.5195844063888891,-0.6666666666666666,0.13333333333333333,0.37165746012429957,0.9738206457608422,-0.6],[-0.14833311864874915,-0.6,0.8,-0.13333333333333333,-0.2,-0.4,0.3333333333333333,-0.06666666666666667,-0.8,0.5333333333333333]],[[-0.6103086239060995,-0.9333333333333333,0.45520269116931367,0.026063616134092527,0.5333333333333333,-0.5748524953457776,-0.8,-0.7333333333333333,-0.8666666666666667,-0.2,-0.2,-0.6683918742477563,-0.8,0.13333333333333333,0.4666666666666667],[-1.026763533829072,0,-0.2,-0.23359675749219927,-1,0.7333333333333333,0.5333333333333333,-0.4666666666666667,-0.12860780794037438,-0.8527194450958577,0.9333333333333333,0.7333333333333333,0.7333333333333333,0.9969549470049085,0.07991213682089768],[-0.6666666666666666,0.4870985769614373,0.13333333333333333,-0.9333333333333333,-0.8666666666666667,-0.9333333333333333,0.26666666666666666,-0.2,-0.26666666666666666,0.17941423077078913,0.7390225021634296,-0.5333333333333333,0.5333333333333333,0.6,0.6666666666666666],[0.06666666666666667,0.7333333333333333,0.03817214143648677,-0.8,-0.6,0.7333333333333333,-0.9333333333333333,-0.6,-0.10188650530930632,0.023235503780618214,-0.5333333333333333,-0.8,-0.6,-0.525606970663677,-0.6666666666666666],[-0.6666666666666666,0.7333333333333333,-0.4,-0.7333333333333333,-0.2,0.9333333333333333,-0.13333333333333333,0.6666666666666666,-0.32807457267420637,-0.63040110015688,0.8666666666666667,0.6666666666666666,-0.4,-0.9333333333333333,-0.3333333333333333],[-0.5130666181797897,0.4,0.2,0.7333333333333333,-0.4666666666666667,0.1070827501872093,-0.2,-0.7333333333333333,-0.9314548593574634,-0.6332162056745314,-0.9333333333333333,-0.7333333333333333,0.13333333333333333,0.7333333333333333,0.1594894969955445],[-0.9333333333333333,0.6,0.3333333333333333,-0.13333333333333333,0.8014294611937125,-0.7333333333333333,-0.4,0.7467578855761272,-0.6,-0.13333333333333333,-0.5229457767722413,0.7333333333333333,-0.5172106080615244,-0.5679317400159309,0.8666666666666667],[-0.17468874559222733,0.13333333333333333,0.6666666666666666,-0.8,0.46883993491175224,-0.8142303134475755,-0.26666666666666666,0.2,0.7333333333333333,-0.6,0.3333333333333333,-0.4666666666666667,0.2,0.4666666666666667,-0.9333333333333333]],[[0.7333333333333333,-0.6,-0.3333333333333333,0.5333333333333333,-0.4,0.5333333333333333,-0.5333333333333333,-0.7333333333333333],[-0.13333333333333333,-0.5333333333333333,0.26666666666666666,0.4666666666666667,0,0.6,0.5333333333333333,0.4666666666666667]]],"biases":[[0.3333333333333333,-0.7333333333333333,0.6,-1,0.4,-0.9333333333333333,0.2,0.4666666666666667,0.2,0.4666666666666667],[0.8,0.13333333333333333,-0.8666666666666667,0.8666666666666667,0.2,-0.9333333333333333,0.3333333333333333,0.26666666666666666,0.2,0,-0.9333333333333333,0.8,0.06666666666666667,-0.26666666666666666,0.13333333333333333],[0.06666666666666667,-0.7333333333333333,0.2,-0.8,0.26666666666666666,0,-0.4,0.13333333333333333],[0.3333333333333333,-0.4666666666666667]],"inputs":6,"layers":[10,15,8],"outputs":2,"decimalPlaces":5,"activationFunction":[null,null,null,null,null],"generation":15,"startX":50,"startY":357,"targetEnabled":true,"targetX":768,"targetY":357,"name":"Slow Fly Drones","loadID":1}',
		'{"weights":[[[-0.7034526168506443,1.1243925118245919,-0.40492419682906333,-0.6601662636188639,-0.6556551152923054,0.873799123354944],[-0.22832262802795278,-0.18359998143096426,0.16309896827951115,0.19800588543981656,-0.3333333333333333,0.2],[-0.25810474634295905,-1,0.49671386006906454,-0.901725046316718,-0.8666666666666667,-0.524772768714834],[0.7017535928209311,0.06261248262021162,-0.5333333333333333,-0.6225404878186621,-0.4200566771774449,-0.06666666666666667],[-0.8417402716418644,0.7850951928675654,-0.06666666666666667,0.06638493109265459,0,0.7773902617918137],[-0.19286391494324465,0.030655061170185807,-0.2040454999885878,0.4666666666666667,0.9387234290929207,0.5393535278956897],[-0.4958457839639488,-0.9622508934023026,-0.5545406862333688,-0.6512042660932035,0.6478804901336939,-0.6345816358973867],[0.0226201292621803,0.2473204372485517,0.3020292724425366,-1.0023083875401504,0.2449791655077065,-0.5333333333333333],[0.43341635351644486,-0.4666666666666667,-0.22853126843008975,-0.44207291390565406,0.771735242590597,-0.8491171874696835],[-0.8713343596393,0.8266720862334472,-0.40662945029955,-0.4,0.8666666666666667,-0.28445333623966007]],[[0.3190103635568487,-0.5453804849362095,-0.2,-0.5325859486643906,0.7706122422531251,-0.4,-0.6299652013880348,-0.5609551223968466,0.3937936507468121,0.3247643004281623],[-0.6793960543824802,0.3413684461023894,0.4666666666666667,0.038435049289120476,0.5849518476300404,-0.2,-0.5904422368079477,0.020297406709447283,-0.8666666666666667,-0.23889505018954676],[0.0030888028122429273,0.5048980974602111,-0.12143936741941458,0.9333333333333333,-0.6,-0.9824890491496224,-0.3333333333333333,-0.8734787696089784,-0.28770773708056463,0.2624479072213678],[-0.3559900688553464,-0.06666666666666667,-0.6,-0.13333333333333333,0.7556798777877323,-0.8,0.5333333333333333,0.019971197086315298,0.7288991635327748,-0.023193315114265894],[-0.4972675630590282,-0.8395376643295657,-0.7691757904973118,-0.7333333333333333,-0.6683041401581612,0.23527433161352365,-0.4030815914678907,0.9538091567513103,0.09958964771005499,0.7810343436654248],[0.8337542827820409,-0.3462303787791246,1,0.6666666666666666,-0.3595512738479088,-0.6,-0.7433338297375712,-0.2,1.047895146391614,0.0018916022339276611],[-0.9389039456926289,0.9332942190950458,-0.709680205741861,-0.3544839100643926,-0.3320716471049947,0.5333333333333333,-0.3333333333333333,-0.40709938284699687,-0.4,0.43212748297734965],[0.666230868846185,-0.8229841261475607,-0.3333333333333333,0.4673748881166902,0.5602921075247091,0.4930960593331056,0.9700580321498523,-0.3572338883667491,-0.38697315661719545,0.09631416475490773],[0.13333333333333333,-0.12560048837489213,0.5287325894300473,-0.028404227542754762,-0.15649779832725946,-0.9333333333333333,-0.8,0.4512165176173656,0.8979620285694812,0.8802352854094476],[-0.23369166634090097,-0.7145379243385854,0.6756949662255002,0.8709299198624423,0.9333333333333333,-0.5866584681233692,-0.7786380238911197,-0.6389327017442532,-0.4276989232441274,-0.26666666666666666],[-0.31403052961871303,0.8821315970507161,-0.7621280616554122,0.8,-0.3766343243727754,0.29385645685226824,-0.17428236822187418,0.8824736783568572,0.7114739314625252,-0.4],[0.4345843028674398,0.5333333333333333,0.8666666666666667,0.7196790876553102,0.8503622116171609,-0.004284488915391876,0.6389210907219898,-0.38082177253251104,0.07252459925805087,0.32722714091215854],[-0.8965961018918264,-0.06666666666666667,-0.11242511719048429,0.001473292701792528,0.2283262667822967,-0.14694213553810642,-0.17876500285639485,-0.7361280836115693,0.06666666666666667,-0.49812157256757356],[0.2772134898565865,-0.8151274433598772,0.27750515719865954,0.9415018228576585,0.2409983893351585,0.8276854641594591,-0.6,0.10399888591362798,-0.6427440884252064,-0.5383512632022399],[0.23323479543823006,0,0.4706962659698722,0.6873960355721799,0.0650351944550159,-0.08543670471841489,-0.5082691476087026,-0.7331694205732142,0.8339610837355302,-0.6534556387766679]],[[-0.8666666666666667,-0.8605666260821342,-0.141045307608912,0.26666666666666666,-0.9168669205749767,-0.734679339170961,0.26998146621891084,-0.4666666666666667,-0.004725018947137935,0.13333333333333333,-0.9862351188688354,0.47354891401374377,-1.0286364208743877,-0.4698102250809971,-0.5355692785540196],[-0.1855586329664611,-0.5366126731642398,-0.34527812241469036,-0.7615433589731524,-0.6791912693018552,0.28097920266152926,0.5588319269727097,0.5784934038168746,0.19017406966603428,-0.3334179493062085,-0.6039395323240355,-0.6666666666666666,-0.21624186266396977,-0.8666666666666667,0.6471690591423876],[-0.6041230721506352,-0.8142349390535614,0.2308910504591783,-0.403309532731278,0.17129720172092366,0.030365882013737647,-0.3333333333333333,-0.5698065251971269,-0.40298482264219015,-0.7128998639873075,1.0126561675885817,-0.26666666666666666,0.6013644720379872,0.5333333333333333,1.0461345496381849],[-0.4377538462319118,-0.7196661406987682,0.03375289194110749,-0.2566835235249707,-0.7765310956791985,0.43828680528098235,-0.06666666666666667,0.2325628620074366,0.8075412303391559,-0.6763894114516258,0.44276508544023957,-0.49910856829564,0.4521287550239357,0.7188106556909798,0.8676166910445129],[0.6474304133415343,-0.503770031637796,0.1322955164785259,0.6849314833681851,0.4666666666666667,0.582602247544471,-0.46595500300165227,0.07916762238976961,-0.21286303930650932,-1,-0.3759779369815932,-0.4,-0.6,0.3162951341226189,0.32616088738057913],[-0.5201297087772326,-0.6,-0.19291732309256437,0.10696763739661674,0.6903405435797098,-0.4666666666666667,0.9749771048062736,-0.9333333333333333,-0.4178547472327008,0.17339145042590465,0.20973965162338915,0.7878860065385306,-0.9626737406057009,-0.0935307350936215,0.7014900879746344],[0.15343426631563883,0.526896257375496,-1.0509314802945529,0.5333333333333333,0.09501784034255248,0.80642403059466,0.3004725601201495,0.7561535697639467,-0.581904074659871,0.04211734090852187,0.6619308154561273,-0.00270506198271403,0,0.5844799364602333,-0.8396609948636211],[0.6174553640695775,-0.5157512896925218,-0.9417364592301372,-0.5847593598900269,-0.9247505517828809,0.9460114639079823,-0.8666666666666667,-0.42067148938399623,0.3233521926927948,-0.10072457560507227,0.39469332104682553,0.9333333333333333,0.8780215597694668,0,-0.2554598264875272]],[[0.4548341830185926,-0.1260103034750563,-0.13333333333333333,-0.8296205439558704,-0.15641444080352015,0.8802178409286735,0.32947451259693467,-0.4372926749311661],[-0.047228999172077464,0.0203989381962639,0.03145574616683876,-0.4666666666666667,0.6666666666666666,-0.1425618557563294,0.6618451896849442,0.19644119391090917]]],"biases":[[0.9333333333333333,0.5333333333333333,0.6666666666666666,-0.8,0.8666666666666667,0.6666666666666666,-0.8666666666666667,0.13333333333333333,0,-0.4],[-0.06666666666666667,0.06666666666666667,0.8666666666666667,-0.4666666666666667,-0.4,0.8666666666666667,1,-0.6666666666666666,-0.4,0.6,0.13333333333333333,-0.3333333333333333,0.5333333333333333,-0.26666666666666666,0.4],[-0.5333333333333333,0.13333333333333333,-0.13333333333333333,-0.3333333333333333,0.26666666666666666,0.4,-0.7333333333333333,0],[-0.06666666666666667,0.13333333333333333]],"inputs":6,"layers":[10,15,8],"outputs":2,"decimalPlaces":5,"activationFunction":[null,null,null,null,null],"generation":80,"startX":50,"startY":317,"targetEnabled":true,"targetX":768,"targetY":353.5,"name":"Swinging Drones","loadID":2}',
		'{"weights":[[[-0.5374831957716586,-1.1325809651482912,-0.3695588197598926,-0.8190880507198849,-0.5172340856533219,0.6153395196636191],[0.33295505068521897,0.2476271244986603,-0.29702014793019543,-1.1515508076173708,-0.12105893796308506,-0.6650461701189421],[-0.4313516668587385,0.3756217369101575,-0.3530064677680547,1.0452437249381437,-0.4623390268072667,-0.7947133633379089],[0.22099675386917342,-0.5356984273983991,-0.3274690255257474,-0.28344015753051294,-0.8866707404094336,0.3947527204577017],[1.018909496771394,-0.7563135738601846,-0.4824595848465781,-0.3774205648684548,0.3665410051957895,0.3720583194938573],[-0.24409218055287624,0.6475079171382964,-0.3578440323622681,-0.4276680986683127,-0.12214890183487494,-0.07246281800163819],[0.866739715969217,0.5307753206103641,0.47629350137554843,1.0247604300919118,-0.11881753235263785,-0.48870617656044685],[0.606446016063485,-0.3132369645101736,0.9710563780358965,0.8894097248688682,0.35280231370370546,-1.3260870621937229],[-0.1484739112872722,0.44815348839801283,-0.7836610435366904,0.7391338635010432,-0.0371312081938643,-0.3613818613037087],[-0.870255385802041,-0.24345405750464807,-0.6397871155769843,0.27580737728974764,0.8392528462303697,0.8067129284969101]],[[-0.819910103745816,0.1621267844191265,0.35199676967921734,-0.3588736807687407,-0.7020020678493273,-0.46288366844418743,-0.9070202207052783,-0.30587849301783293,0.9680047241659123,0.8999537702669175],[-0.29732857538879376,1.204840826306775,0.9117814622271139,-0.49494179434376195,-0.28832505810865655,-0.16998350205917315,0.8660879582945172,0.9258930220397606,-0.4146115160826952,0.29322598902051944],[0.8602021890880358,0.8512154436020684,-0.43753162404127177,-0.22199136364510522,0.20878577034835424,-0.10134679202526412,-0.5919662280684735,-1.0672880083466907,-0.11631473424267835,0.6639191558943475],[-0.07672099500918877,-0.5093162331712773,-0.5897867855502633,-0.677405034041447,-0.4766214500630094,0.258819772784905,-0.6007632587338336,-0.6809311767497536,-0.2735774067494184,-0.3607533002423523],[0.25852013461128953,0.6612080307897203,-0.08055389399142202,-0.20066969782010913,0.17394340998107588,1.19730853632362,0.3112866019848213,-0.20366884836491717,-0.4610022844499317,0.9545212968017975],[-0.7419477308740905,-0.8000464454223682,0.8145863405999646,0.03978609821142266,0.6286839780529697,-0.21277801687228837,-0.026185783980859384,-0.2964247994614112,-1.0084734729634697,0.3851309521158124],[-0.1108852060575686,0.7263101790216961,-0.5698027981569225,-0.018272957642556986,0.7728623647249174,0.13756916751311596,-0.5354322007925578,-0.6897899988004352,-0.7536098771803669,-0.6517317671068373],[-0.8607779325892357,-0.733942726272707,0.8266511949780804,-0.5607219420136842,-1.040111110108805,0.3419205001666992,0.7421708338608256,0.03139542920160758,1.3508713328050177,0.7486788580185173],[-0.3743344436858051,0.12552311094829,0.8737755316119482,0.7771608782522774,-0.057011636257680465,-0.8521121216686899,-0.18936532689418611,0.8758575877067694,-0.0012720963716700007,-0.9366962029574617],[0.5827547439687728,-0.8179530053539918,-0.15797592582449396,-0.46444372092771624,-0.48477191540506404,-0.14205984056622117,-0.8056519374997695,-0.0829154673650534,0.34919964712244256,-0.4083003988515699],[-1.242260832368831,0.07981998367125609,1.0993746719948159,-0.5933550819424352,0.5695263433041733,0.5248674331911074,-0.15905150764451853,0.8347379752868617,-0.6923314679981053,-0.8152564067048992],[-0.4428639235084579,-0.04806874191695419,-0.7625647581265877,1.067165791535515,-0.015025195578756242,-0.9212752217052476,0.6880863042797096,0.3768885010904842,-0.8203714122458444,-0.042155153381938246],[0.3728343282729848,-0.6366775221614568,-0.4552717236023027,-0.8210770239477779,0.7663293598448517,0.6805755042921329,-0.02789231194656072,0.6838516502273893,-0.31041623817823905,-0.7666451783220292],[0.8793769251516499,-0.3309804695142609,0.7567120284588531,-0.0924465661993617,-0.04359111328260372,0.8742423796677035,-0.5691749569755806,0.5054522870730223,-0.5506726317853007,0.5854823408283514],[-0.4949729254310653,0.9573606378425591,0.21319982949194605,-0.7449300841405267,-0.333278724097571,0.11845942196042093,0.10984159618870214,-0.0985675582131049,-0.18273375761251576,-1.2220554969631314]],[[-0.7878358831954256,-0.5394072709257512,-0.6803476840306619,0.24591177603327066,-0.6405078196423487,-0.46020629407085256,-0.1292919740082747,0.14672078336574873,0.1720648310900757,0.9157664326111791,0.09978368590390674,0.9804232351289702,-0.042513074847698396,0.36837209301938867,-0.36732278251387784],[-0.1473673722143362,-0.5701176961208348,-0.4544359059613611,-0.14446995628809417,-0.08920174912876808,-0.6267007038260828,-0.4823840351574886,-0.993436697956793,-0.3634574076517886,-1.1864519187642537,0.906794658154028,-0.8250073747066844,0.525029975708631,0.6185468291583099,-0.47034790962147766],[-0.1827781329981763,1.0531566933481735,-0.4027059161983949,0.38488920993836034,-0.5132039511938558,-0.3398217070188284,-0.3275029434172001,-0.37250265960186774,0.052471297684316145,0.04398922805080244,0.0027386795807259473,-0.29755349988906715,0.2334629939345619,0.07705542001382958,-0.45663738994576886],[0.5054134476362434,-0.19402863137700163,-0.40305690757809387,0.21509474984066443,-1.3506239033120577,0.07095598157112501,-0.5836165172917569,0.33309094627095404,0.896133220577225,0.5735637469487529,-1.0313237525386223,-1.0815520139224661,-0.2544435453964926,-0.25059900264931845,-0.1743145464952155],[-0.6700912981559092,-0.5519317616860102,0.416520552508873,1.0584947391720565,0.29736674586995726,-0.7458518128623484,1.0387064222569489,-0.4616483530761059,0.3913203140654126,-0.7245709969436941,0.3670046962791691,0.2675028460505676,-0.7934216836536204,-1.1020571283196805,0.05971188285380602],[-0.4786557777021291,0.6065709346536562,-0.4961774043668863,0.39281954856658924,0.5804186245369267,-0.1228862283320572,0.7112542428407084,0.9166379365022423,-1.02381787205102,-0.9229268423386761,-0.17889271873787013,-0.2676172126447527,0.38318255415001806,-0.8243484189606751,0.6488709440083646],[-0.24153302777270164,-1.060661395353244,0.15266599313693124,-0.17920829780193215,-0.5702150021580488,0.23928138528735357,-0.1013031768951434,0.7738980646099837,0.28220877999723837,-0.16461550157331797,0.4256673410752757,-0.5654881137304776,-0.7479013291658431,0.5584363277195703,0.45568662731226117],[-0.8128248569978532,-0.43113655512507404,0.37195966289901927,-0.04029082386857574,0.8586956373255005,0.036316794370707645,-0.37135053052632333,-0.7991418200973925,-0.15295555940634495,0.20892540973179693,-1.0136902741107268,0.7001243967109219,-0.09504532216220123,0.4561848132697074,0.3308526998011002]],[[-0.24336766057273013,-0.8183342922622255,0.4991655891656659,-1.0144764671839317,-0.061016607525066956,-0.7401777937475977,-1.07545234688124,-0.9025651003645637],[-0.6424377468845603,0.7170505059253491,-0.5219151626535018,0.396612493895769,-0.0024354981896587136,1.0298486389581774,-0.32712130796626626,0.4075813596476344]]],"biases":[[0.26666666666666666,-0.06666666666666667,-0.13333333333333333,0.7333333333333333,-0.6666666666666666,-0.2,-0.8,-0.3333333333333333,0.9333333333333333,0.8666666666666667],[-0.8666666666666667,0.6,-0.9333333333333333,-0.06666666666666667,-0.5333333333333333,0.8,0.4666666666666667,0.5333333333333333,-0.8666666666666667,-0.13333333333333333,0.5333333333333333,0.7333333333333333,0.7333333333333333,1,0.4666666666666667],[0.06666666666666667,0.4666666666666667,-0.3333333333333333,0.5333333333333333,-0.06666666666666667,-0.7333333333333333,-0.26666666666666666,-0.06666666666666667],[0,-0.4]],"inputs":6,"layers":[10,15,8],"outputs":2,"decimalPlaces":5,"activationFunction":[null,null,null,null,null],"generation":505,"startX":50,"startY":317,"targetEnabled":false,"targetX":187.5,"targetY":317,"name":"Hover Drones","loadID":3}',
		'{"weights":[[[0.8,-0.7333333333333333,0.26666666666666666,-0.8995752464478094,-0.6096057110777657,0.9333333333333333],[0.3333333333333333,0.019325933086423566,-0.4666666666666667,0.8666666666666667,0.5333333333333333,0.4],[-0.3333333333333333,-0.47169108436174517,-0.7333333333333333,-0.5603407375454292,0.18685295009761949,-0.9305143883708665],[-0.4666666666666667,0.7878889954652485,0.7333333333333333,0.6,-0.6666666666666666,0.8666666666666667],[-0.47350572693551846,0.2,-0.4,0.9333333333333333,0.2195642378785516,-0.13333333333333333],[1,0.5333333333333333,-0.88730971101029,-0.5333333333333333,0.9333333333333333,-0.0628936996249637],[-0.4666666666666667,0.5966394076904177,0.7333333333333333,-0.5706974625541541,0.44522281475314174,0.7333333333333333],[0.06666666666666667,0.6049536696214677,0.5926007644417629,-0.6666666666666666,-0.4,0.9333333333333333],[0.2,0.42250499906869304,0,-0.7333333333333333,0.8,0.8666666666666667],[-0.7333333333333333,-0.26666666666666666,-0.4972241721085011,-0.13159036660915355,0.21564164995760662,-0.5333333333333333]],[[0.6882918779434964,0.7028196541739191,0.3633641445130531,-0.7333333333333333,0.7333333333333333,0.022592255121895943,0.6666666666666666,-0.6,-0.3333333333333333,0.06666666666666667],[-0.5333333333333333,-0.8666666666666667,0.4,0.8666666666666667,-0.2,0.06666666666666667,-0.26666666666666666,0.06666666666666667,0.4,-0.4],[0.8666666666666667,-0.8666666666666667,0.4,0.9673145720762417,-0.2,0.5506137147441654,0.8666666666666667,0,0.5333333333333333,0.46116849213208694],[-0.13333333333333333,0.8,0.13333333333333333,0.5408949508049563,0.046051091455658805,0.13333333333333333,-0.08812249403910247,-0.9333333333333333,0.4666666666666667,-0.3333333333333333],[0.26666666666666666,0.5333333333333333,-0.7333333333333333,0.30669131138030686,-0.8,0.6,-0.3333333333333333,-0.2701202627144944,-0.6666666666666666,0.11931290198871077],[0.7333333333333333,0.6486789498936462,0.06666666666666667,0.4666666666666667,0.4666666666666667,0.13333333333333333,0.9333333333333333,-0.4,0.8577407780544025,0.9662046077119819],[-0.6,0.05315873245641914,0.5050481504831354,-0.765679545567836,0.8478436989118056,-0.617351945742133,-0.7333333333333333,-0.09755432811936281,-0.2,-0.48920341692937175],[0.5893720293683088,0.4513185239576522,-0.9703673611833155,-0.2,0.5322462378628094,0.8666666666666667,0.3333333333333333,0.2,-0.9004122853995502,0.0819072882685529],[0.7200692310853719,-0.6,0.9333333333333333,0.06666666666666667,-0.2,0.6666666666666666,0.3333333333333333,-0.2,0.21233151826517954,0.7048825443090415],[0.9242180732421384,-0.9173220506925894,0.3333333333333333,-0.9412325367852137,-0.5008572717225209,0.2429216019553047,-0.5333333333333333,-0.20135049198964344,-0.26666666666666666,-0.9153124590802894],[-0.26666666666666666,0.7930794656169606,0.46721954555680034,0.13333333333333333,0.9333333333333333,0.06666666666666667,0.6567023652067853,0.07903457878513759,-0.4666666666666667,0.5333333333333333],[0.6191118205256319,-0.9333333333333333,0.8666666666666667,-0.38989632416713793,0.8666666666666667,-0.672011012821667,-0.6377261668332912,-0.9333333333333333,-0.2,-0.7333333333333333],[-0.3333333333333333,0.237053002939768,-0.5671527484411415,-0.4666666666666667,-0.3333333333333333,0.5030630521002104,0.2421358965965088,-0.4371562518342856,-0.9844368399090914,-0.3333333333333333],[-0.9333333333333333,0.025888228232869105,0.26666666666666666,0.5333333333333333,-0.36705252605065297,-0.26666666666666666,0.4241879581231801,0.7228866654100848,-0.6649524826698381,0.843138590892903],[-0.8,0.06666666666666667,-0.26666666666666666,0.4,0.26666666666666666,0.6355343716958969,0.9333333333333333,-0.13333333333333333,0.6,0.3617729804334884]],[[-0.6666666666666666,-0.007533050497583016,0.9784460063115998,-0.8146099791862538,0.7333333333333333,-0.4252451647573885,0.5487263456618884,0.8666666666666667,-0.8,0.8666666666666667,-0.6163102148920335,-0.13333333333333333,0.12959298592220583,-0.7515358855290225,-0.500428521584867],[-0.13333333333333333,-0.3333333333333333,0.26666666666666666,-0.8,-0.26666666666666666,0.8139988045807894,-0.2,-0.4666666666666667,-0.27893035374073394,0.9326884433308021,-0.3333333333333333,0.17612677291447448,-0.3333333333333333,0.4,-0.26666666666666666],[-0.8070104558712322,0.9333333333333333,0.1000040065828071,-0.06666666666666667,-0.7437245434299646,0.7333333333333333,0.2268018294982367,0.9170561738642128,0.13333333333333333,1,0.2,0.8656854036335533,-0.7102461083845912,-0.13333333333333333,-0.9333333333333333],[-0.3437129034812945,-0.8050265385734292,-0.3333333333333333,-0.26666666666666666,0.6900193185085541,-0.8,-0.3333333333333333,0.9333333333333333,-0.928732167036678,0.4666666666666667,-0.2,0.07252046919465718,0.20793864289972702,-0.13690856168950177,0.5333333333333333],[1,-0.9333333333333333,0.3333333333333333,-0.9115064330036764,-0.9333333333333333,-0.26666666666666666,0.06457532729701418,0.26666666666666666,-0.4934077710114459,0.4033723511436314,0.15539650174214492,0.7333333333333333,0.10850002636620455,-0.35397570896350194,-0.6],[0.3333333333333333,0.320344441635633,-0.01969250218355363,0.6,-0.7333333333333333,-0.44960194561156064,0.7333333333333333,0.6666666666666666,0.35785563889814054,0.8666666666666667,-0.6,0.7333333333333333,0.22472127645562337,-0.8666666666666667,-0.5333333333333333],[0.7333333333333333,-0.06666666666666667,0.5175650996271464,-0.5750127365515219,0.4666666666666667,-0.5333333333333333,0.8342926386576928,1,-0.9268635938860024,-0.8685336328627089,0.2,-0.9333333333333333,-0.9699457920793768,0.26666666666666666,-1.0506845363988224],[-0.06666666666666667,-0.9333333333333333,0.7734327692982916,0.13333333333333333,-0.26666666666666666,-0.7333333333333333,0.2052461987770231,0.7333333333333333,-0.20366830380059792,-0.4,0.26666666666666666,-0.9333333333333333,-0.6666666666666666,-0.8,-0.6]],[[-0.7333333333333333,0.25478684234291565,0.26666666666666666,0.3333333333333333,-0.10382655327309329,-0.3333333333333333,-0.7333333333333333,-0.26666666666666666],[-0.9333333333333333,-0.39409764318082285,-0.5045964908772392,1.0160191940119174,0.13333333333333333,0.3526298132565469,0.8,-0.2520844690476338]]],"biases":[[-0.06666666666666667,0.3333333333333333,0.9333333333333333,0.5333333333333333,-0.2,0.7333333333333333,-0.8666666666666667,0.7333333333333333,0.9333333333333333,-0.6],[-0.06666666666666667,-0.7333333333333333,0.8,-0.7333333333333333,0.4,0,-0.9333333333333333,-0.06666666666666667,0.06666666666666667,-0.13333333333333333,0.26666666666666666,-0.3333333333333333,0.26666666666666666,-0.9333333333333333,0.5333333333333333],[0.6666666666666666,-0.3333333333333333,-0.8666666666666667,-0.7333333333333333,-0.8666666666666667,-0.8666666666666667,-0.06666666666666667,0.6],[0.8,0.6666666666666666]],"inputs":6,"layers":[10,15,8],"outputs":2,"decimalPlaces":5,"activationFunction":[null,null,null,null,null],"generation":28,"startX":50,"startY":353.5,"targetEnabled":true,"targetX":768,"targetY":353.5,"name":"Headbang Drones","loadID":4}'
	],
	loadNetworks: function() {

		let index = 0;
		let hasFoundEnd = false;

		let alreadyLoadedNetworks = [false, false, false, false, false, false, false, false, false, false];
		
		let firstItem = 0;

		while (!hasFoundEnd) {

			let item = localStorage.getItem(index.toString());

			if (item == null) {
				// Has found empty slots
				hasFoundEnd = true;
			}
			else {

				item = JSON.parse(item);

				if (item.loadID != null) {
					// Has already loaded one of the default saved networks
					if (item.loadID == 1) firstItem = index;
					
					alreadyLoadedNetworks[item.loadID] = true;
				}
				
			}

			index++;		
		}

		index -= 1;
			
		for (let i = 0; i < this.savedNetworks.length; i++) {

			let savedNet = this.savedNetworks[i];
			let parsedNet = JSON.parse(savedNet);
			
			if (!alreadyLoadedNetworks[parsedNet.loadID]) {				
				localStorage.setItem(index.toString(), savedNet);			
				index++;				
			}
		}

		return [firstItem, firstItem + this.savedNetworks.length];

		
	}
}

export { networkLoader };